   -0.164426139593124390E+02    0.302620383118964308-313
   -0.180664912462234497E+02    0.302620383118964308-313
   -0.200836730003356934E+02    0.302620383118964308-313
   -0.208033365011215210E+02    0.302620383118964308-313
   -0.153320692777633667E+02    0.302620383118964308-313
   -0.201462392807006836E+02    0.302620383118964308-313
   -0.198782476186752319E+02    0.302620383118964308-313
   -0.202431278228759766E+02    0.302620383118964308-313
   -0.167083511352539062E+02    0.302620383118964308-313
   -0.208882294893264771E+02    0.302620383118964308-313
   -0.184530079364776611E+02    0.395252516672997235-321
   -0.189608030319213867E+02    0.395252516672997235-321
   -0.171020797491073608E+02    0.395252516672997235-321
   -0.184621882438659668E+02    0.395252516672997235-321
   -0.168920162916183472E+02    0.395252516672997235-321
   -0.166205631494522095E+02    0.395252516672997235-321
   -0.181558774709701538E+02    0.395252516672997235-321
   -0.177103904485702515E+02    0.395252516672997235-321
   -0.158562294244766235E+02    0.395252516672997235-321
   -0.159948924779891968E+02    0.395252516672997235-321
   -0.170533204078674316E+02    0.395252516672997235-321
   -0.169028420448303223E+02    0.395252516672997235-321
   -0.208332570791244507E+02    0.395252516672997235-321
   -0.158808106184005737E+02    0.395252516672997235-321
   -0.206228638887405396E+02    0.395252516672997235-321
   -0.206016683578491211E+02    0.395252516672997235-321
   -0.197234412431716919E+02    0.395252516672997235-321
   -0.171850311756134033E+02    0.395252516672997235-321
   -0.183530015945434570E+02    0.395252516672997235-321
   -0.190975849628448486E+02    0.395252516672997235-321
   -0.165822182893753052E+02    0.395252516672997235-321
   -0.186766204833984375E+02    0.395252516672997235-321
   -0.192433691024780273E+02    0.395252516672997235-321
   -0.154743887186050415E+02    0.395252516672997235-321
   -0.153191624879837036E+02    0.395252516672997235-321
   -0.185140067338943481E+02    0.395252516672997235-321
   -0.183183950185775757E+02    0.395252516672997235-321
   -0.153559598922729492E+02    0.395252516672997235-321
   -0.197920306921005249E+02    0.395252516672997235-321
   -0.197748241424560547E+02    0.395252516672997235-321
   -0.209744496345520020E+02    0.395252516672997235-321
   -0.152310022115707397E+02    0.395252516672997235-321
   -0.164412560462951660E+02    0.395252516672997235-321
   -0.171342566013336182E+02    0.395252516672997235-321
   -0.153102225065231323E+02    0.395252516672997235-321
   -0.199382987022399902E+02    0.395252516672997235-321
   -0.157804205417633057E+02    0.395252516672997235-321
   -0.153021079301834106E+02    0.395252516672997235-321
   -0.160769405364990234E+02    0.395252516672997235-321
   -0.166098761558532715E+02    0.395252516672997235-321
   -0.186227531433105469E+02    0.395252516672997235-321
   -0.199206000566482544E+02    0.395252516672997235-321
   -0.204151915311813354E+02    0.395252516672997235-321
   -0.190455508232116699E+02    0.395252516672997235-321
   -0.164192079305648804E+02    0.395252516672997235-321
   -0.184870544672012329E+02    0.395252516672997235-321
   -0.197608623504638672E+02    0.395252516672997235-321
   -0.179080864191055298E+02    0.395252516672997235-321
   -0.200940155982971191E+02    0.395252516672997235-321
   -0.151665050983428955E+02    0.395252516672997235-321
   -0.157472119331359863E+02    0.395252516672997235-321
   -0.194887794256210327E+02    0.395252516672997235-321
   -0.206890382766723633E+02    0.395252516672997235-321
   -0.161340808868408203E+02    0.395252516672997235-321
   -0.199547413587570190E+02    0.395252516672997235-321
   -0.196702369451522827E+02    0.395252516672997235-321
   -0.167499536275863647E+02    0.395252516672997235-321
   -0.171742075681686401E+02    0.395252516672997235-321
   -0.168764415979385376E+02    0.395252516672997235-321
   -0.150557878017425537E+02    0.395252516672997235-321
   -0.150613163709640503E+02    0.395252516672997235-321
   -0.164530724287033081E+02    0.395252516672997235-321
   -0.163816341161727905E+02    0.395252516672997235-321
   -0.190791081190109253E+02    0.395252516672997235-321
   -0.178950687646865845E+02    0.395252516672997235-321
   -0.200439577102661133E+02    0.395252516672997235-321
   -0.201828092336654663E+02    0.395252516672997235-321
   -0.176071615219116211E+02    0.395252516672997235-321
   -0.197020736932754517E+02    0.395252516672997235-321
   -0.169535479545593262E+02    0.395252516672997235-321
   -0.191368367671966553E+02    0.395252516672997235-321
   -0.190588903427124023E+02    0.395252516672997235-321
   -0.188167347908020020E+02    0.395252516672997235-321
   -0.164465600252151489E+02    0.395252516672997235-321
   -0.155895577669143677E+02    0.395252516672997235-321
   -0.170923697948455811E+02    0.395252516672997235-321
   -0.187792682647705078E+02    0.395252516672997235-321
   -0.165624629259109497E+02    0.395252516672997235-321
   -0.164440598487854004E+02    0.395252516672997235-321
   -0.178986350297927856E+02    0.395252516672997235-321
   -0.155084356069564819E+02    0.395252516672997235-321
   -0.165623352527618408E+02    0.395252516672997235-321
   -0.209040348529815674E+02    0.395252516672997235-321
   -0.167724083662033081E+02    0.395252516672997235-321
   -0.203954794406890869E+02    0.395252516672997235-321
   -0.182796921730041504E+02    0.395252516672997235-321
   -0.186113001108169556E+02    0.395252516672997235-321
   -0.181588525772094727E+02    0.395252516672997235-321
   -0.173298336267471313E+02    0.395252516672997235-321
   -0.195299012660980225E+02    0.395252516672997235-321
   -0.170879101753234863E+02    0.395252516672997235-321
   -0.151770114898681641E+02    0.395252516672997235-321
   -0.190744367837905884E+02    0.395252516672997235-321
   -0.160635169744491577E+02    0.395252516672997235-321
   -0.182992426156997681E+02    0.395252516672997235-321
   -0.180985046625137329E+02    0.395252516672997235-321
   -0.168435105085372925E+02    0.395252516672997235-321
   -0.188549276590347290E+02    0.395252516672997235-321
   -0.204764363765716553E+02    0.395252516672997235-321
   -0.157414609193801880E+02    0.395252516672997235-321
   -0.169398196935653687E+02    0.395252516672997235-321
   -0.165373349189758301E+02    0.395252516672997235-321
   -0.162770100831985474E+02    0.395252516672997235-321
   -0.188916370868682861E+02    0.395252516672997235-321
   -0.157866969108581543E+02    0.395252516672997235-321
   -0.174372929334640503E+02    0.395252516672997235-321
   -0.172087311744689941E+02    0.395252516672997235-321
   -0.163867628574371338E+02    0.395252516672997235-321
   -0.179960728883743286E+02    0.395252516672997235-321
   -0.175021909475326538E+02    0.395252516672997235-321
   -0.180291491746902466E+02    0.395252516672997235-321
   -0.201522080898284912E+02    0.395252516672997235-321
   -0.159390367269515991E+02    0.395252516672997235-321
   -0.207136116027832031E+02    0.395252516672997235-321
   -0.203839023113250732E+02    0.395252516672997235-321
   -0.204727746248245239E+02    0.395252516672997235-321
   -0.166115859746932983E+02    0.395252516672997235-321
   -0.197357486486434937E+02    0.395252516672997235-321
   -0.152085396051406860E+02    0.395252516672997235-321
   -0.187062807083129883E+02    0.395252516672997235-321
   -0.186523493528366089E+02    0.395252516672997235-321
   -0.165887414216995239E+02    0.395252516672997235-321
   -0.208461205959320068E+02    0.395252516672997235-321
   -0.203550993204116821E+02    0.395252516672997235-321
   -0.165661654472351074E+02    0.395252516672997235-321
   -0.203674113750457764E+02    0.395252516672997235-321
   -0.206237261295318604E+02    0.395252516672997235-321
   -0.168502274751663208E+02    0.395252516672997235-321
   -0.205701184272766113E+02    0.395252516672997235-321
   -0.202979679107666016E+02    0.395252516672997235-321
   -0.162421517372131348E+02    0.395252516672997235-321
   -0.160592104196548462E+02    0.395252516672997235-321
   -0.166848614215850830E+02    0.395252516672997235-321
   -0.205912270545959473E+02    0.395252516672997235-321
   -0.177779985666275024E+02    0.395252516672997235-321
   -0.160757585763931274E+02    0.395252516672997235-321
   -0.172566676139831543E+02    0.395252516672997235-321
   -0.196370862722396851E+02    0.395252516672997235-321
   -0.165469386577606201E+02    0.395252516672997235-321
   -0.205326923131942749E+02    0.395252516672997235-321
   -0.172476214170455933E+02    0.395252516672997235-321
   -0.162745689153671265E+02    0.395252516672997235-321
   -0.160988988876342773E+02    0.395252516672997235-321
   -0.201083478927612305E+02    0.395252516672997235-321
   -0.193951156139373779E+02    0.395252516672997235-321
   -0.170568155050277710E+02    0.395252516672997235-321
   -0.166173326969146729E+02    0.395252516672997235-321
   -0.207903481721878052E+02    0.395252516672997235-321
   -0.157056459188461304E+02    0.395252516672997235-321
   -0.180296949148178101E+02    0.395252516672997235-321
   -0.196131752729415894E+02    0.395252516672997235-321
   -0.192236462831497192E+02    0.395252516672997235-321
   -0.187040011882781982E+02    0.395252516672997235-321
   -0.191002507209777832E+02    0.395252516672997235-321
   -0.188507130146026611E+02    0.395252516672997235-321
   -0.175581693649291992E+02    0.395252516672997235-321
   -0.194911361932754517E+02    0.395252516672997235-321
   -0.205482012033462524E+02    0.395252516672997235-321
   -0.154013106822967529E+02    0.395252516672997235-321
   -0.183361601829528809E+02    0.395252516672997235-321
   -0.160697343349456787E+02    0.395252516672997235-321
   -0.204284044504165649E+02    0.395252516672997235-321
   -0.201120454072952271E+02    0.395252516672997235-321
   -0.155693135261535645E+02    0.395252516672997235-321
   -0.164392086267471313E+02    0.395252516672997235-321
   -0.151710702180862427E+02    0.395252516672997235-321
   -0.177787803411483765E+02    0.395252516672997235-321
   -0.200378969907760620E+02    0.395252516672997235-321
   -0.189247931241989136E+02    0.395252516672997235-321
   -0.207643278837203979E+02    0.395252516672997235-321
   -0.192763370275497437E+02    0.395252516672997235-321
   -0.187720828056335449E+02    0.395252516672997235-321
   -0.195517426729202271E+02    0.395252516672997235-321
   -0.157863135337829590E+02    0.395252516672997235-321
   -0.178051611185073853E+02    0.395252516672997235-321
   -0.151250295639038086E+02    0.395252516672997235-321
   -0.158327561616897583E+02    0.395252516672997235-321
   -0.174183905124664307E+02    0.395252516672997235-321
   -0.180731896162033081E+02    0.395252516672997235-321
   -0.201169745922088623E+02    0.395252516672997235-321
   -0.150749319791793823E+02    0.395252516672997235-321
   -0.150453078746795654E+02    0.395252516672997235-321
   -0.198680720329284668E+02    0.395252516672997235-321
   -0.158788011074066162E+02    0.395252516672997235-321
   -0.190784840583801270E+02    0.395252516672997235-321
   -0.160317106246948242E+02    0.395252516672997235-321
   -0.150981302261352539E+02    0.395252516672997235-321
   -0.161682772636413574E+02    0.395252516672997235-321
   -0.188125237226486206E+02    0.395252516672997235-321
   -0.180395815372467041E+02    0.395252516672997235-321
   -0.172341992855072021E+02    0.395252516672997235-321
   -0.158794147968292236E+02    0.395252516672997235-321
   -0.160064299106597900E+02    0.395252516672997235-321
   -0.202804620265960693E+02    0.395252516672997235-321
   -0.151958105564117432E+02    0.395252516672997235-321
   -0.203962798118591309E+02    0.395252516672997235-321
   -0.174666366577148438E+02    0.395252516672997235-321
   -0.150577018260955811E+02    0.395252516672997235-321
   -0.191859558820724487E+02    0.395252516672997235-321
   -0.195805224180221558E+02    0.395252516672997235-321
   -0.171986321210861206E+02    0.395252516672997235-321
   -0.184693983793258667E+02    0.395252516672997235-321
   -0.155430589914321899E+02    0.395252516672997235-321
   -0.200650906562805176E+02    0.395252516672997235-321
   -0.170099759101867676E+02    0.395252516672997235-321
   -0.151022286415100098E+02    0.395252516672997235-321
   -0.156363773345947266E+02    0.395252516672997235-321
   -0.174070883989334106E+02    0.395252516672997235-321
   -0.194728803634643555E+02    0.395252516672997235-321
   -0.178145828247070312E+02    0.395252516672997235-321
   -0.182661248445510864E+02    0.395252516672997235-321
   -0.205442168712615967E+02    0.395252516672997235-321
   -0.158519057035446167E+02    0.395252516672997235-321
   -0.202953590154647827E+02    0.395252516672997235-321
   -0.207117483615875244E+02    0.395252516672997235-321
   -0.206243745088577271E+02    0.395252516672997235-321
   -0.193739891052246094E+02    0.395252516672997235-321
   -0.193829762935638428E+02    0.395252516672997235-321
   -0.176287422180175781E+02    0.395252516672997235-321
   -0.200823032855987549E+02    0.395252516672997235-321
   -0.157837353944778442E+02    0.395252516672997235-321
   -0.186131565570831299E+02    0.395252516672997235-321
   -0.204499450922012329E+02    0.395252516672997235-321
   -0.187742435932159424E+02    0.395252516672997235-321
   -0.196181287765502930E+02    0.395252516672997235-321
   -0.204736071825027466E+02    0.395252516672997235-321
   -0.191900238990783691E+02    0.395252516672997235-321
   -0.174814617633819580E+02    0.395252516672997235-321
   -0.153606516122817993E+02    0.395252516672997235-321
   -0.161785472631454468E+02    0.395252516672997235-321
   -0.197564492225646973E+02    0.395252516672997235-321
   -0.160775671005249023E+02    0.395252516672997235-321
   -0.172433620691299438E+02    0.395252516672997235-321
   -0.180687618255615234E+02    0.395252516672997235-321
   -0.164410157203674316E+02    0.395252516672997235-321
   -0.195398068428039551E+02    0.395252516672997235-321
   -0.162661314010620117E+02    0.395252516672997235-321
   -0.192987746000289917E+02    0.395252516672997235-321
   -0.174960719347000122E+02    0.395252516672997235-321
   -0.200488536357879639E+02    0.395252516672997235-321
   -0.195501930713653564E+02    0.395252516672997235-321
   -0.200337703227996826E+02    0.395252516672997235-321
   -0.166163681745529175E+02    0.395252516672997235-321
   -0.189879448413848877E+02    0.395252516672997235-321
   -0.181454687118530273E+02    0.395252516672997235-321
   -0.150156791210174561E+02    0.395252516672997235-321
   -0.161588741540908813E+02    0.395252516672997235-321
   -0.205885677337646484E+02    0.395252516672997235-321
   -0.175490119457244873E+02    0.395252516672997235-321
   -0.155423548221588135E+02    0.395252516672997235-321
   -0.191922175884246826E+02    0.395252516672997235-321
   -0.179595154523849487E+02    0.395252516672997235-321
   -0.174760122299194336E+02    0.395252516672997235-321
   -0.209701473712921143E+02    0.395252516672997235-321
   -0.164603927135467529E+02    0.395252516672997235-321
   -0.187393140792846680E+02    0.395252516672997235-321
   -0.206124665737152100E+02    0.395252516672997235-321
   -0.207647548913955688E+02    0.395252516672997235-321
   -0.155305491685867310E+02    0.395252516672997235-321
   -0.197603727579116821E+02    0.395252516672997235-321
   -0.201888055801391602E+02    0.395252516672997235-321
   -0.204421101808547974E+02    0.395252516672997235-321
   -0.156186786890029907E+02    0.395252516672997235-321
   -0.179110883474349976E+02    0.395252516672997235-321
   -0.151116875410079956E+02    0.395252516672997235-321
   -0.160953902006149292E+02    0.395252516672997235-321
   -0.203721256256103516E+02    0.395252516672997235-321
   -0.177744823694229126E+02    0.395252516672997235-321
   -0.174340374469757080E+02    0.395252516672997235-321
   -0.187499742507934570E+02    0.395252516672997235-321
   -0.152145012617111206E+02    0.395252516672997235-321
   -0.162986540794372559E+02    0.395252516672997235-321
   -0.203283401727676392E+02    0.395252516672997235-321
   -0.187973299026489258E+02    0.395252516672997235-321
   -0.171619874238967896E+02    0.395252516672997235-321
   -0.184967901706695557E+02    0.395252516672997235-321
   -0.154315999746322632E+02    0.395252516672997235-321
   -0.204946339130401611E+02    0.395252516672997235-321
   -0.208574008941650391E+02    0.395252516672997235-321
   -0.157995704412460327E+02    0.395252516672997235-321
   -0.166432074308395386E+02    0.395252516672997235-321
   -0.201450455188751221E+02    0.395252516672997235-321
   -0.163675317764282227E+02    0.395252516672997235-321
   -0.150466879606246948E+02    0.395252516672997235-321
   -0.206121397018432617E+02    0.395252516672997235-321
   -0.150024898052215576E+02    0.395252516672997235-321
   -0.199980139732360840E+02    0.395252516672997235-321
   -0.209649878740310669E+02    0.395252516672997235-321
   -0.205938824415206909E+02    0.395252516672997235-321
   -0.161103465557098389E+02    0.395252516672997235-321
   -0.174946907758712769E+02    0.395252516672997235-321
   -0.209068465232849121E+02    0.395252516672997235-321
   -0.191400915384292603E+02    0.395252516672997235-321
   -0.190446181297302246E+02    0.395252516672997235-321
   -0.196449780464172363E+02    0.395252516672997235-321
   -0.198592661619186401E+02    0.395252516672997235-321
   -0.152240234613418579E+02    0.395252516672997235-321
   -0.189041354656219482E+02    0.395252516672997235-321
   -0.164538005590438843E+02    0.395252516672997235-321
   -0.185133261680603027E+02    0.395252516672997235-321
   -0.168956025838851929E+02    0.395252516672997235-321
   -0.174435331821441650E+02    0.395252516672997235-321
   -0.174824506044387817E+02    0.395252516672997235-321
   -0.188146716356277466E+02    0.395252516672997235-321
   -0.167638324499130249E+02    0.395252516672997235-321
   -0.180625376701354980E+02    0.395252516672997235-321
   -0.151978529691696167E+02    0.395252516672997235-321
   -0.205473368167877197E+02    0.395252516672997235-321
   -0.187532286643981934E+02    0.395252516672997235-321
   -0.203887091875076294E+02    0.395252516672997235-321
   -0.170317289829254150E+02    0.395252516672997235-321
   -0.203479528427124023E+02    0.395252516672997235-321
   -0.165810098648071289E+02    0.395252516672997235-321
   -0.177495889663696289E+02    0.395252516672997235-321
   -0.175193374156951904E+02    0.395252516672997235-321
   -0.168052196502685547E+02    0.395252516672997235-321
   -0.178422238826751709E+02    0.395252516672997235-321
   -0.172408068180084229E+02    0.395252516672997235-321
   -0.169424772262573242E+02    0.395252516672997235-321
   -0.170463441610336304E+02    0.395252516672997235-321
   -0.176662702560424805E+02    0.395252516672997235-321
   -0.161438612937927246E+02    0.395252516672997235-321
   -0.187454770803451538E+02    0.395252516672997235-321
   -0.193401499986648560E+02    0.395252516672997235-321
   -0.174820336103439331E+02    0.395252516672997235-321
   -0.203905788660049438E+02    0.395252516672997235-321
   -0.185665494203567505E+02    0.395252516672997235-321
   -0.188066908121109009E+02    0.395252516672997235-321
   -0.181761231422424316E+02    0.395252516672997235-321
   -0.152397601604461670E+02    0.395252516672997235-321
   -0.156476504802703857E+02    0.395252516672997235-321
   -0.197328397035598755E+02    0.395252516672997235-321
   -0.180347067117691040E+02    0.395252516672997235-321
   -0.196413563489913940E+02    0.395252516672997235-321
   -0.193886693716049194E+02    0.395252516672997235-321
   -0.208096507787704468E+02    0.395252516672997235-321
   -0.192928118705749512E+02    0.395252516672997235-321
   -0.181075919866561890E+02    0.395252516672997235-321
   -0.205550633668899536E+02    0.395252516672997235-321
   -0.172649484872817993E+02    0.395252516672997235-321
   -0.175496406555175781E+02    0.395252516672997235-321
   -0.157638752460479736E+02    0.395252516672997235-321
   -0.202612055540084839E+02    0.395252516672997235-321
   -0.160239822864532471E+02    0.395252516672997235-321
   -0.204000535011291504E+02    0.395252516672997235-321
   -0.183900411128997803E+02    0.395252516672997235-321
   -0.184774063825607300E+02    0.395252516672997235-321
   -0.196201211214065552E+02    0.395252516672997235-321
   -0.163641382455825806E+02    0.395252516672997235-321
   -0.181062301397323608E+02    0.395252516672997235-321
   -0.194643849134445190E+02    0.395252516672997235-321
   -0.185155591964721680E+02    0.395252516672997235-321
   -0.179532161951065063E+02    0.395252516672997235-321
   -0.164690430164337158E+02    0.395252516672997235-321
   -0.154063417911529541E+02    0.395252516672997235-321
   -0.168331217765808105E+02    0.395252516672997235-321
   -0.177308728694915771E+02    0.395252516672997235-321
   -0.172800235748291016E+02    0.395252516672997235-321
   -0.178873833417892456E+02    0.395252516672997235-321
   -0.181505827903747559E+02    0.395252516672997235-321
   -0.174654504060745239E+02    0.395252516672997235-321
   -0.185592198371887207E+02    0.395252516672997235-321
   -0.197418848276138306E+02    0.395252516672997235-321
   -0.208733325004577637E+02    0.395252516672997235-321
   -0.174530993700027466E+02    0.395252516672997235-321
   -0.160733900070190430E+02    0.395252516672997235-321
   -0.190452786684036255E+02    0.395252516672997235-321
   -0.190250930786132812E+02    0.395252516672997235-321
   -0.159508659839630127E+02    0.395252516672997235-321
   -0.187599914073944092E+02    0.395252516672997235-321
   -0.156768025159835815E+02    0.395252516672997235-321
   -0.208565890789031982E+02    0.395252516672997235-321
   -0.167441082000732422E+02    0.395252516672997235-321
   -0.166568251848220825E+02    0.395252516672997235-321
   -0.207682271003723145E+02    0.395252516672997235-321
   -0.198962631225585938E+02    0.395252516672997235-321
   -0.163382585048675537E+02    0.395252516672997235-321
   -0.160684257745742798E+02    0.395252516672997235-321
   -0.188428766727447510E+02    0.395252516672997235-321
   -0.182405991554260254E+02    0.395252516672997235-321
   -0.190396410226821899E+02    0.395252516672997235-321
   -0.191236771345138550E+02    0.395252516672997235-321
   -0.150345357656478882E+02    0.395252516672997235-321
   -0.159345066547393799E+02    0.395252516672997235-321
   -0.151129056215286255E+02    0.395252516672997235-321
   -0.185667457580566406E+02    0.395252516672997235-321
   -0.188299823999404907E+02    0.395252516672997235-321
   -0.185396304130554199E+02    0.395252516672997235-321
   -0.177876065969467163E+02    0.395252516672997235-321
   -0.183857020139694214E+02    0.395252516672997235-321
